Language model created by QuickLM on Mon Oct 19 07:05:13 EDT 2015
Copyright (c) 1996-2010 Carnegie Mellon University and Alexander I. Rudnicky

The model is in standard ARPA format, designed by Doug Paul while he was at MITRE.

The code that was used to produce this language model is available in Open Source.
Please visit http://www.speech.cs.cmu.edu/tools/ for more information

The (fixed) discount mass is 0.5. The backoffs are computed using the ratio method.
This model based on a corpus of 19 sentences and 25 words

\data\
ngram 1=25
ngram 2=43
ngram 3=30

\1-grams:
-0.8674 </s> -0.3010
-0.8674 <s> -0.2341
-2.1461 COMPENSATION -0.2377
-2.1461 ENVELOP -0.2377
-1.8451 FINGER -0.2304
-2.1461 FOUR -0.2948
-2.1461 FULL -0.2377
-2.1461 GRAB -0.2377
-1.8451 GRASP -0.2377
-1.8451 GRAVITY -0.2341
-2.1461 HALF -0.2377
-2.1461 HOME -0.2377
-2.1461 INDEX -0.2377
-2.1461 MIDDLE -0.2377
-2.1461 OFF -0.2377
-2.1461 OKAY -0.2979
-2.1461 ON -0.2377
-1.6690 PINCH -0.2304
-2.1461 READY -0.2377
-2.1461 ROBOT -0.2377
-1.6690 SET -0.2916
-2.1461 STOP -0.2377
-2.1461 THREE -0.2948
-1.6690 TORQUE -0.2916
-2.1461 ZERO -0.2377

\2-grams:
-1.5798 <s> ENVELOP 0.0000
-1.5798 <s> FOUR 0.0000
-1.5798 <s> GRAB 0.0000
-1.5798 <s> GRASP 0.0000
-1.2788 <s> GRAVITY 0.0000
-1.5798 <s> HOME 0.0000
-1.5798 <s> OFF 0.0000
-1.5798 <s> OKAY 0.0000
-1.5798 <s> ON 0.0000
-1.1027 <s> PINCH 0.0000
-1.5798 <s> READY 0.0000
-1.1027 <s> SET 0.0000
-1.5798 <s> STOP 0.0000
-1.5798 <s> THREE 0.0000
-0.3010 COMPENSATION </s> -0.3010
-0.3010 ENVELOP </s> -0.3010
-0.6021 FINGER </s> -0.3010
-0.6021 FINGER GRASP 0.0000
-0.3010 FOUR FINGER -0.1761
-0.3010 FULL </s> -0.3010
-0.3010 GRAB </s> -0.3010
-0.3010 GRASP </s> -0.3010
-0.6021 GRAVITY </s> -0.3010
-0.6021 GRAVITY COMPENSATION 0.0000
-0.3010 HALF </s> -0.3010
-0.3010 HOME </s> -0.3010
-0.3010 INDEX </s> -0.3010
-0.3010 MIDDLE </s> -0.3010
-0.3010 OFF </s> -0.3010
-0.3010 OKAY ROBOT 0.0000
-0.3010 ON </s> -0.3010
-0.7782 PINCH </s> -0.3010
-0.7782 PINCH INDEX 0.0000
-0.7782 PINCH MIDDLE 0.0000
-0.3010 READY </s> -0.3010
-0.3010 ROBOT </s> -0.3010
-0.3010 SET TORQUE 0.0000
-0.3010 STOP </s> -0.3010
-0.3010 THREE FINGER -0.1761
-0.7782 TORQUE FULL 0.0000
-0.7782 TORQUE HALF 0.0000
-0.7782 TORQUE ZERO 0.0000
-0.3010 ZERO </s> -0.3010

\3-grams:
-0.3010 <s> ENVELOP </s>
-0.3010 <s> FOUR FINGER
-0.3010 <s> GRAB </s>
-0.3010 <s> GRASP </s>
-0.6021 <s> GRAVITY </s>
-0.6021 <s> GRAVITY COMPENSATION
-0.3010 <s> HOME </s>
-0.3010 <s> OFF </s>
-0.3010 <s> OKAY ROBOT
-0.3010 <s> ON </s>
-0.7782 <s> PINCH </s>
-0.7782 <s> PINCH INDEX
-0.7782 <s> PINCH MIDDLE
-0.3010 <s> READY </s>
-0.3010 <s> SET TORQUE
-0.3010 <s> STOP </s>
-0.3010 <s> THREE FINGER
-0.3010 FINGER GRASP </s>
-0.3010 FOUR FINGER GRASP
-0.3010 GRAVITY COMPENSATION </s>
-0.3010 OKAY ROBOT </s>
-0.3010 PINCH INDEX </s>
-0.3010 PINCH MIDDLE </s>
-0.7782 SET TORQUE FULL
-0.7782 SET TORQUE HALF
-0.7782 SET TORQUE ZERO
-0.3010 THREE FINGER </s>
-0.3010 TORQUE FULL </s>
-0.3010 TORQUE HALF </s>
-0.3010 TORQUE ZERO </s>

\end\
