Language model created by QuickLM on Fri Nov 20 04:00:10 EST 2015
Copyright (c) 1996-2010 Carnegie Mellon University and Alexander I. Rudnicky

The model is in standard ARPA format, designed by Doug Paul while he was at MITRE.

The code that was used to produce this language model is available in Open Source.
Please visit http://www.speech.cs.cmu.edu/tools/ for more information

The (fixed) discount mass is 0.5. The backoffs are computed using the ratio method.
This model based on a corpus of 12 sentences and 18 words

\data\
ngram 1=18
ngram 2=28
ngram 3=29

\1-grams:
-1.0280 </s> -0.3010
-1.0280 <s> -0.2545
-2.1072 CLEAR -0.2942
-2.1072 CONTINUE -0.2583
-2.1072 GO -0.2976
-2.1072 HOME -0.2583
-2.1072 LEARN -0.2942
-1.8062 MODEL -0.2583
-1.0658 OKAY -0.2620
-2.1072 PAUSE -0.2583
-2.1072 RESUME -0.2583
-1.0658 ROBOT -0.2583
-2.1072 SET -0.2976
-2.1072 START -0.2942
-1.8062 STOP -0.2583
-2.1072 TARGET -0.2583
-1.8062 TASK -0.2583
-1.8062 TEACH -0.2507

\2-grams:
-0.3388 <s> OKAY 0.0000
-1.3802 <s> STOP 0.0000
-0.3010 CLEAR MODEL 0.0000
-0.3010 CONTINUE </s> -0.3010
-0.3010 GO HOME 0.0000
-0.3010 HOME </s> -0.3010
-0.3010 LEARN MODEL 0.0000
-0.3010 MODEL </s> -0.3010
-0.3010 OKAY ROBOT 0.0000
-0.3010 PAUSE </s> -0.3010
-0.3010 RESUME </s> -0.3010
-1.3424 ROBOT CLEAR 0.0000
-1.3424 ROBOT CONTINUE 0.0000
-1.3424 ROBOT GO 0.0000
-1.3424 ROBOT LEARN 0.0000
-1.3424 ROBOT PAUSE 0.0000
-1.3424 ROBOT RESUME 0.0000
-1.3424 ROBOT SET 0.0000
-1.3424 ROBOT START 0.0000
-1.3424 ROBOT STOP 0.0000
-1.0414 ROBOT TEACH 0.0000
-0.3010 SET TARGET 0.0000
-0.3010 START TASK 0.0000
-0.3010 STOP </s> -0.3010
-0.3010 TARGET </s> -0.3010
-0.3010 TASK </s> -0.3010
-0.6021 TEACH </s> -0.3010
-0.6021 TEACH TASK 0.0000

\3-grams:
-0.3010 <s> OKAY ROBOT
-0.3010 <s> STOP </s>
-0.3010 CLEAR MODEL </s>
-0.3010 GO HOME </s>
-0.3010 LEARN MODEL </s>
-1.3424 OKAY ROBOT CLEAR
-1.3424 OKAY ROBOT CONTINUE
-1.3424 OKAY ROBOT GO
-1.3424 OKAY ROBOT LEARN
-1.3424 OKAY ROBOT PAUSE
-1.3424 OKAY ROBOT RESUME
-1.3424 OKAY ROBOT SET
-1.3424 OKAY ROBOT START
-1.3424 OKAY ROBOT STOP
-1.0414 OKAY ROBOT TEACH
-0.3010 ROBOT CLEAR MODEL
-0.3010 ROBOT CONTINUE </s>
-0.3010 ROBOT GO HOME
-0.3010 ROBOT LEARN MODEL
-0.3010 ROBOT PAUSE </s>
-0.3010 ROBOT RESUME </s>
-0.3010 ROBOT SET TARGET
-0.3010 ROBOT START TASK
-0.3010 ROBOT STOP </s>
-0.6021 ROBOT TEACH </s>
-0.6021 ROBOT TEACH TASK
-0.3010 SET TARGET </s>
-0.3010 START TASK </s>
-0.3010 TEACH TASK </s>

\end\
