Language model created by QuickLM on Fri Nov 20 03:03:38 EST 2015
Copyright (c) 1996-2010 Carnegie Mellon University and Alexander I. Rudnicky

The model is in standard ARPA format, designed by Doug Paul while he was at MITRE.

The code that was used to produce this language model is available in Open Source.
Please visit http://www.speech.cs.cmu.edu/tools/ for more information

The (fixed) discount mass is 0.5. The backoffs are computed using the ratio method.
This model based on a corpus of 9 sentences and 15 words

\data\
ngram 1=15
ngram 2=22
ngram 3=23

\1-grams:
-1.0370 </s> -0.3010
-1.0370 <s> -0.2543
-1.9912 CLEAR -0.2921
-1.9912 GO -0.2966
-1.9912 HOME -0.2592
-1.9912 LEARN -0.2921
-1.6902 MODEL -0.2592
-1.0881 OKAY -0.2640
-1.0881 ROBOT -0.2592
-1.9912 SET -0.2966
-1.9912 START -0.2921
-1.6902 STOP -0.2592
-1.9912 TARGET -0.2592
-1.6902 TASK -0.2592
-1.6902 TEACH -0.2493

\2-grams:
-0.3522 <s> OKAY 0.0000
-1.2553 <s> STOP 0.0000
-0.3010 CLEAR MODEL 0.0000
-0.3010 GO HOME 0.0000
-0.3010 HOME </s> -0.3010
-0.3010 LEARN MODEL 0.0000
-0.3010 MODEL </s> -0.3010
-0.3010 OKAY ROBOT 0.0000
-1.2041 ROBOT CLEAR 0.0000
-1.2041 ROBOT GO 0.0000
-1.2041 ROBOT LEARN 0.0000
-1.2041 ROBOT SET 0.0000
-1.2041 ROBOT START 0.0000
-1.2041 ROBOT STOP 0.0000
-0.9031 ROBOT TEACH 0.0000
-0.3010 SET TARGET 0.0000
-0.3010 START TASK 0.0000
-0.3010 STOP </s> -0.3010
-0.3010 TARGET </s> -0.3010
-0.3010 TASK </s> -0.3010
-0.6021 TEACH </s> -0.3010
-0.6021 TEACH TASK 0.0000

\3-grams:
-0.3010 <s> OKAY ROBOT
-0.3010 <s> STOP </s>
-0.3010 CLEAR MODEL </s>
-0.3010 GO HOME </s>
-0.3010 LEARN MODEL </s>
-1.2041 OKAY ROBOT CLEAR
-1.2041 OKAY ROBOT GO
-1.2041 OKAY ROBOT LEARN
-1.2041 OKAY ROBOT SET
-1.2041 OKAY ROBOT START
-1.2041 OKAY ROBOT STOP
-0.9031 OKAY ROBOT TEACH
-0.3010 ROBOT CLEAR MODEL
-0.3010 ROBOT GO HOME
-0.3010 ROBOT LEARN MODEL
-0.3010 ROBOT SET TARGET
-0.3010 ROBOT START TASK
-0.3010 ROBOT STOP </s>
-0.6021 ROBOT TEACH </s>
-0.6021 ROBOT TEACH TASK
-0.3010 SET TARGET </s>
-0.3010 START TASK </s>
-0.3010 TEACH TASK </s>

\end\
