Language model created by QuickLM on Fri Nov 20 04:28:48 EST 2015
Copyright (c) 1996-2010 Carnegie Mellon University and Alexander I. Rudnicky

The model is in standard ARPA format, designed by Doug Paul while he was at MITRE.

The code that was used to produce this language model is available in Open Source.
Please visit http://www.speech.cs.cmu.edu/tools/ for more information

The (fixed) discount mass is 0.5. The backoffs are computed using the ratio method.
This model based on a corpus of 14 sentences and 18 words

\data\
ngram 1=18
ngram 2=30
ngram 3=32

\1-grams:
-1.0300 </s> -0.3010
-1.0300 <s> -0.2553
-2.1761 CLEAR -0.2923
-2.1761 CONTINUE -0.2585
-2.1761 GO -0.2981
-2.1761 HOME -0.2585
-1.8751 LEARN -0.2488
-1.6990 MODEL -0.2585
-1.0621 OKAY -0.2617
-2.1761 PAUSE -0.2585
-2.1761 RESUME -0.2585
-1.0621 ROBOT -0.2585
-2.1761 SET -0.2981
-2.1761 START -0.2952
-1.8751 STOP -0.2585
-2.1761 TARGET -0.2585
-1.8751 TASK -0.2585
-1.6990 TEACH -0.2422

\2-grams:
-0.3332 <s> OKAY 0.0000
-1.4472 <s> STOP 0.0000
-0.3010 CLEAR MODEL 0.0000
-0.3010 CONTINUE </s> -0.3010
-0.3010 GO HOME 0.0000
-0.3010 HOME </s> -0.3010
-0.6021 LEARN </s> -0.3010
-0.6021 LEARN MODEL 0.0000
-0.3010 MODEL </s> -0.3010
-0.3010 OKAY ROBOT 0.0000
-0.3010 PAUSE </s> -0.3010
-0.3010 RESUME </s> -0.3010
-1.4150 ROBOT CLEAR 0.0000
-1.4150 ROBOT CONTINUE 0.0000
-1.4150 ROBOT GO 0.0000
-1.1139 ROBOT LEARN 0.0000
-1.4150 ROBOT PAUSE 0.0000
-1.4150 ROBOT RESUME 0.0000
-1.4150 ROBOT SET 0.0000
-1.4150 ROBOT START 0.0000
-1.4150 ROBOT STOP 0.0000
-0.9379 ROBOT TEACH 0.0000
-0.3010 SET TARGET 0.0000
-0.3010 START TASK 0.0000
-0.3010 STOP </s> -0.3010
-0.3010 TARGET </s> -0.3010
-0.3010 TASK </s> -0.3010
-0.7782 TEACH </s> -0.3010
-0.7782 TEACH MODEL 0.0000
-0.7782 TEACH TASK 0.0000

\3-grams:
-0.3010 <s> OKAY ROBOT
-0.3010 <s> STOP </s>
-0.3010 CLEAR MODEL </s>
-0.3010 GO HOME </s>
-0.3010 LEARN MODEL </s>
-1.4150 OKAY ROBOT CLEAR
-1.4150 OKAY ROBOT CONTINUE
-1.4150 OKAY ROBOT GO
-1.1139 OKAY ROBOT LEARN
-1.4150 OKAY ROBOT PAUSE
-1.4150 OKAY ROBOT RESUME
-1.4150 OKAY ROBOT SET
-1.4150 OKAY ROBOT START
-1.4150 OKAY ROBOT STOP
-0.9379 OKAY ROBOT TEACH
-0.3010 ROBOT CLEAR MODEL
-0.3010 ROBOT CONTINUE </s>
-0.3010 ROBOT GO HOME
-0.6021 ROBOT LEARN </s>
-0.6021 ROBOT LEARN MODEL
-0.3010 ROBOT PAUSE </s>
-0.3010 ROBOT RESUME </s>
-0.3010 ROBOT SET TARGET
-0.3010 ROBOT START TASK
-0.3010 ROBOT STOP </s>
-0.7782 ROBOT TEACH </s>
-0.7782 ROBOT TEACH MODEL
-0.7782 ROBOT TEACH TASK
-0.3010 SET TARGET </s>
-0.3010 START TASK </s>
-0.3010 TEACH MODEL </s>
-0.3010 TEACH TASK </s>

\end\
