Language model created by QuickLM on Fri Nov 20 03:20:03 EST 2015
Copyright (c) 1996-2010 Carnegie Mellon University and Alexander I. Rudnicky

The model is in standard ARPA format, designed by Doug Paul while he was at MITRE.

The code that was used to produce this language model is available in Open Source.
Please visit http://www.speech.cs.cmu.edu/tools/ for more information

The (fixed) discount mass is 0.5. The backoffs are computed using the ratio method.
This model based on a corpus of 11 sentences and 17 words

\data\
ngram 1=17
ngram 2=26
ngram 3=27

\1-grams:
-1.0305 </s> -0.3010
-1.0305 <s> -0.2545
-2.0719 CLEAR -0.2936
-2.0719 GO -0.2973
-2.0719 HOME -0.2585
-2.0719 LEARN -0.2936
-1.7709 MODEL -0.2585
-1.0719 OKAY -0.2626
-2.0719 PAUSE -0.2585
-2.0719 RESUME -0.2585
-1.0719 ROBOT -0.2585
-2.0719 SET -0.2973
-2.0719 START -0.2936
-1.7709 STOP -0.2585
-2.0719 TARGET -0.2585
-1.7709 TASK -0.2585
-1.7709 TEACH -0.2503

\2-grams:
-0.3424 <s> OKAY 0.0000
-1.3424 <s> STOP 0.0000
-0.3010 CLEAR MODEL 0.0000
-0.3010 GO HOME 0.0000
-0.3010 HOME </s> -0.3010
-0.3010 LEARN MODEL 0.0000
-0.3010 MODEL </s> -0.3010
-0.3010 OKAY ROBOT 0.0000
-0.3010 PAUSE </s> -0.3010
-0.3010 RESUME </s> -0.3010
-1.3010 ROBOT CLEAR 0.0000
-1.3010 ROBOT GO 0.0000
-1.3010 ROBOT LEARN 0.0000
-1.3010 ROBOT PAUSE 0.0000
-1.3010 ROBOT RESUME 0.0000
-1.3010 ROBOT SET 0.0000
-1.3010 ROBOT START 0.0000
-1.3010 ROBOT STOP 0.0000
-1.0000 ROBOT TEACH 0.0000
-0.3010 SET TARGET 0.0000
-0.3010 START TASK 0.0000
-0.3010 STOP </s> -0.3010
-0.3010 TARGET </s> -0.3010
-0.3010 TASK </s> -0.3010
-0.6021 TEACH </s> -0.3010
-0.6021 TEACH TASK 0.0000

\3-grams:
-0.3010 <s> OKAY ROBOT
-0.3010 <s> STOP </s>
-0.3010 CLEAR MODEL </s>
-0.3010 GO HOME </s>
-0.3010 LEARN MODEL </s>
-1.3010 OKAY ROBOT CLEAR
-1.3010 OKAY ROBOT GO
-1.3010 OKAY ROBOT LEARN
-1.3010 OKAY ROBOT PAUSE
-1.3010 OKAY ROBOT RESUME
-1.3010 OKAY ROBOT SET
-1.3010 OKAY ROBOT START
-1.3010 OKAY ROBOT STOP
-1.0000 OKAY ROBOT TEACH
-0.3010 ROBOT CLEAR MODEL
-0.3010 ROBOT GO HOME
-0.3010 ROBOT LEARN MODEL
-0.3010 ROBOT PAUSE </s>
-0.3010 ROBOT RESUME </s>
-0.3010 ROBOT SET TARGET
-0.3010 ROBOT START TASK
-0.3010 ROBOT STOP </s>
-0.6021 ROBOT TEACH </s>
-0.6021 ROBOT TEACH TASK
-0.3010 SET TARGET </s>
-0.3010 START TASK </s>
-0.3010 TEACH TASK </s>

\end\
